{
    "learner": {
        "attributes": {
            "scikit_learn": "{\"_estimator_type\": \"classifier\"}"
        },
        "feature_names": [
            "historical_true_size",
            "purchased_size",
            "shoe_type_encoded",
            "customer_width_encoded"
        ],
        "feature_types": [
            "float",
            "float",
            "int",
            "int"
        ],
        "gradient_booster": {
            "model": {
                "cats": {
                    "enc": [],
                    "feature_segments": [],
                    "sorted_idx": []
                },
                "gbtree_model_param": {
                    "num_parallel_tree": "1",
                    "num_trees": "100"
                },
                "iteration_indptr": [
                    0,
                    1,
                    2,
                    3,
                    4,
                    5,
                    6,
                    7,
                    8,
                    9,
                    10,
                    11,
                    12,
                    13,
                    14,
                    15,
                    16,
                    17,
                    18,
                    19,
                    20,
                    21,
                    22,
                    23,
                    24,
                    25,
                    26,
                    27,
                    28,
                    29,
                    30,
                    31,
                    32,
                    33,
                    34,
                    35,
                    36,
                    37,
                    38,
                    39,
                    40,
                    41,
                    42,
                    43,
                    44,
                    45,
                    46,
                    47,
                    48,
                    49,
                    50,
                    51,
                    52,
                    53,
                    54,
                    55,
                    56,
                    57,
                    58,
                    59,
                    60,
                    61,
                    62,
                    63,
                    64,
                    65,
                    66,
                    67,
                    68,
                    69,
                    70,
                    71,
                    72,
                    73,
                    74,
                    75,
                    76,
                    77,
                    78,
                    79,
                    80,
                    81,
                    82,
                    83,
                    84,
                    85,
                    86,
                    87,
                    88,
                    89,
                    90,
                    91,
                    92,
                    93,
                    94,
                    95,
                    96,
                    97,
                    98,
                    99,
                    100
                ],
                "tree_info": [
                    0,
                    0,
                    0,
                    0,
                    0,
                    0,
                    0,
                    0,
                    0,
                    0,
                    0,
                    0,
                    0,
                    0,
                    0,
                    0,
                    0,
                    0,
                    0,
                    0,
                    0,
                    0,
                    0,
                    0,
                    0,
                    0,
                    0,
                    0,
                    0,
                    0,
                    0,
                    0,
                    0,
                    0,
                    0,
                    0,
                    0,
                    0,
                    0,
                    0,
                    0,
                    0,
                    0,
                    0,
                    0,
                    0,
                    0,
                    0,
                    0,
                    0,
                    0,
                    0,
                    0,
                    0,
                    0,
                    0,
                    0,
                    0,
                    0,
                    0,
                    0,
                    0,
                    0,
                    0,
                    0,
                    0,
                    0,
                    0,
                    0,
                    0,
                    0,
                    0,
                    0,
                    0,
                    0,
                    0,
                    0,
                    0,
                    0,
                    0,
                    0,
                    0,
                    0,
                    0,
                    0,
                    0,
                    0,
                    0,
                    0,
                    0,
                    0,
                    0,
                    0,
                    0,
                    0,
                    0,
                    0,
                    0,
                    0,
                    0
                ],
                "trees": [
                    {
                        "base_weights": [
                            -1.5615928E-8,
                            -4.4485432E-1,
                            4.4396728E-1,
                            -4.9849656E-1,
                            1.1826624E0,
                            -1.7053051E-1,
                            4.7241837E-1,
                            -1.19645275E-1,
                            -4.137081E-2,
                            1.3602032E-1,
                            7.504982E-2,
                            5.2119773E-2,
                            -8.3137415E-2
                        ],
                        "categories": [],
                        "categories_nodes": [],
                        "categories_segments": [],
                        "categories_sizes": [],
                        "default_left": [
                            0,
                            0,
                            0,
                            0,
                            0,
                            0,
                            0,
                            0,
                            0,
                            0,
                            0,
                            0,
                            0
                        ],
                        "id": 0,
                        "left_children": [
                            1,
                            3,
                            5,
                            7,
                            9,
                            -1,
                            11,
                            -1,
                            -1,
                            -1,
                            -1,
                            -1,
                            -1
                        ],
                        "loss_changes": [
                            1.9318137E2,
                            4.3244095E1,
                            3.0741356E1,
                            2.7537392E1,
                            1.9804764E-1,
                            0E0,
                            3.1211044E1,
                            0E0,
                            0E0,
                            0E0,
                            0E0,
                            0E0,
                            0E0
                        ],
                        "parents": [
                            2147483647,
                            0,
                            0,
                            1,
                            1,
                            2,
                            2,
                            3,
                            3,
                            4,
                            4,
                            6,
                            6
                        ],
                        "right_children": [
                            2,
                            4,
                            6,
                            8,
                            10,
                            -1,
                            12,
                            -1,
                            -1,
                            -1,
                            -1,
                            -1,
                            -1
                        ],
                        "split_conditions": [
                            1E0,
                            1.25E1,
                            8E0,
                            8.5E0,
                            2E0,
                            -1.7053051E-1,
                            1.25E1,
                            -1.19645275E-1,
                            -4.137081E-2,
                            1.3602032E-1,
                            7.504982E-2,
                            5.2119773E-2,
                            -8.3137415E-2
                        ],
                        "split_indices": [
                            2,
                            1,
                            1,
                            1,
                            3,
                            0,
                            1,
                            0,
                            0,
                            0,
                            0,
                            0,
                            0
                        ],
                        "split_type": [
                            0,
                            0,
                            0,
                            0,
                            0,
                            0,
                            0,
                            0,
                            0,
                            0,
                            0,
                            0,
                            0
                        ],
                        "sum_hessian": [
                            9.7612976E2,
                            4.875768E2,
                            4.8855295E2,
                            4.7269083E2,
                            1.4885979E1,
                            5.6127462E0,
                            4.8294022E2,
                            4.978262E1,
                            4.2290823E2,
                            9.029201E0,
                            5.8567786E0,
                            4.6610196E2,
                            1.6838238E1
                        ],
                        "tree_param": {
                            "num_deleted": "0",
                            "num_feature": "4",
                            "num_nodes": "13",
                            "size_leaf_vector": "1"
                        }
                    },
                    {
                        "base_weights": [
                            9.153897E-5,
                            -3.9759555E-1,
                            4.0248707E-1,
                            -4.4568112E-1,
                            1.0997325E0,
                            -1.5337585E-1,
                            4.287575E-1,
                            -3.8081437E-2,
                            -1.1682937E-1,
                            1.2679386E-1,
                            6.944331E-2,
                            4.7350913E-2,
                            -7.445546E-2
                        ],
                        "categories": [],
                        "categories_nodes": [],
                        "categories_segments": [],
                        "categories_sizes": [],
                        "default_left": [
                            0,
                            0,
                            0,
                            0,
                            0,
                            0,
                            0,
                            0,
                            0,
                            0,
                            0,
                            0,
                            0
                        ],
                        "id": 1,
                        "left_children": [
                            1,
                            3,
                            5,
                            7,
                            9,
                            -1,
                            11,
                            -1,
                            -1,
                            -1,
                            -1,
                            -1,
                            -1
                        ],
                        "loss_changes": [
                            1.5640535E2,
                            3.588231E1,
                            2.536866E1,
                            2.1912628E1,
                            1.8187141E-1,
                            0E0,
                            2.5560684E1,
                            0E0,
                            0E0,
                            0E0,
                            0E0,
                            0E0,
                            0E0
                        ],
                        "parents": [
                            2147483647,
                            0,
                            0,
                            1,
                            1,
                            2,
                            2,
                            3,
                            3,
                            4,
                            4,
                            6,
                            6
                        ],
                        "right_children": [
                            2,
                            4,
                            6,
                            8,
                            10,
                            -1,
                            12,
                            -1,
                            -1,
                            -1,
                            -1,
                            -1,
                            -1
                        ],
                        "split_conditions": [
                            1E0,
                            1.25E1,
                            8E0,
                            1.2E1,
                            2E0,
                            -1.5337585E-1,
                            1.25E1,
                            -3.8081437E-2,
                            -1.1682937E-1,
                            1.2679386E-1,
                            6.944331E-2,
                            4.7350913E-2,
                            -7.445546E-2
                        ],
                        "split_indices": [
                            2,
                            1,
                            1,
                            0,
                            3,
                            0,
                            1,
                            0,
                            0,
                            0,
                            0,
                            0,
                            0
                        ],
                        "split_type": [
                            0,
                            0,
                            0,
                            0,
                            0,
                            0,
                            0,
                            0,
                            0,
                            0,
                            0,
                            0,
                            0
                        ],
                        "sum_hessian": [
                            9.7536554E2,
                            4.9055875E2,
                            4.848068E2,
                            4.759755E2,
                            1.4583248E1,
                            5.72153E0,
                            4.7908527E2,
                            4.3816934E2,
                            3.780615E1,
                            8.801908E0,
                            5.7813406E0,
                            4.620582E2,
                            1.7027056E1
                        ],
                        "tree_param": {
                            "num_deleted": "0",
                            "num_feature": "4",
                            "num_nodes": "13",
                            "size_leaf_vector": "1"
                        }
                    },
                    {
                        "base_weights": [
                            1.3815155E-4,
                            -3.560322E-1,
                            3.6510044E-1,
                            -3.9921513E-1,
                            1.0271633E0,
                            -1.3968801E-1,
                            3.893166E-1,
                            -1.02179945E-1,
                            -3.2321278E-2,
                            1.18910685E-1,
                            6.434939E-2,
                            4.3034073E-2,
                            -6.694623E-2
                        ],
                        "categories": [],
                        "categories_nodes": [],
                        "categories_segments": [],
                        "categories_sizes": [],
                        "default_left": [
                            0,
                            0,
                            0,
                            0,
                            0,
                            0,
                            0,
                            0,
                            0,
                            0,
                            0,
                            0,
                            0
                        ],
                        "id": 2,
                        "left_children": [
                            1,
                            3,
                            5,
                            7,
                            9,
                            -1,
                            11,
                            -1,
                            -1,
                            -1,
                            -1,
                            -1,
                            -1
                        ],
                        "loss_changes": [
                            1.26800735E2,
                            2.9898018E1,
                            2.1101067E1,
                            2.2356674E1,
                            1.8084908E-1,
                            0E0,
                            2.0965172E1,
                            0E0,
                            0E0,
                            0E0,
                            0E0,
                            0E0,
                            0E0
                        ],
                        "parents": [
                            2147483647,
                            0,
                            0,
                            1,
                            1,
                            2,
                            2,
                            3,
                            3,
                            4,
                            4,
                            6,
                            6
                        ],
                        "right_children": [
                            2,
                            4,
                            6,
                            8,
                            10,
                            -1,
                            12,
                            -1,
                            -1,
                            -1,
                            -1,
                            -1,
                            -1
                        ],
                        "split_conditions": [
                            1E0,
                            1.25E1,
                            8E0,
                            8.5E0,
                            2E0,
                            -1.3968801E-1,
                            1.25E1,
                            -1.02179945E-1,
                            -3.2321278E-2,
                            1.18910685E-1,
                            6.434939E-2,
                            4.3034073E-2,
                            -6.694623E-2
                        ],
                        "split_indices": [
                            2,
                            1,
                            1,
                            1,
                            3,
                            0,
                            1,
                            0,
                            0,
                            0,
                            0,
                            0,
                            0
                        ],
                        "split_type": [
                            0,
                            0,
                            0,
                            0,
                            0,
                            0,
                            0,
                            0,
                            0,
                            0,
                            0,
                            0,
                            0
                        ],
                        "sum_hessian": [
                            9.7347473E2,
                            4.92684E2,
                            4.8079077E2,
                            4.7845807E2,
                            1.4225928E1,
                            5.7497787E0,
                            4.75041E2,
                            5.0699715E1,
                            4.2775833E2,
                            8.527317E0,
                            5.6986113E0,
                            4.5789273E2,
                            1.7148258E1
                        ],
                        "tree_param": {
                            "num_deleted": "0",
                            "num_feature": "4",
                            "num_nodes": "13",
                            "size_leaf_vector": "1"
                        }
                    },
                    {
                        "base_weights": [
                            1.6042472E-4,
                            -3.1935784E-1,
                            3.312832E-1,
                            -3.5821596E-1,
                            9.6263593E-1,
                            -1.2843937E-1,
                            3.5357663E-1,
                            -9.16567E-2,
                            -2.8993702E-2,
                            1.1204417E-1,
                            5.969221E-2,
                            1.04447976E-1,
                            2.9475754E-2
                        ],
                        "categories": [],
                        "categories_nodes": [],
                        "categories_segments": [],
                        "categories_sizes": [],
                        "default_left": [
                            0,
                            0,
                            0,
                            0,
                            0,
                            0,
                            0,
                            0,
                            0,
                            0,
                            0,
                            0,
                            0
                        ],
                        "id": 3,
                        "left_children": [
                            1,
                            3,
                            5,
                            7,
                            9,
                            -1,
                            11,
                            -1,
                            -1,
                            -1,
                            -1,
                            -1,
                            -1
                        ],
                        "loss_changes": [
                            1.0290607E2,
                            2.5003601E1,
                            1.76586E1,
                            1.8078003E1,
                            1.8725395E-1,
                            0E0,
                            1.8870708E1,
                            0E0,
                            0E0,
                            0E0,
                            0E0,
                            0E0,
                            0E0
                        ],
                        "parents": [
                            2147483647,
                            0,
                            0,
                            1,
                            1,
                            2,
                            2,
                            3,
                            3,
                            4,
                            4,
                            6,
                            6
                        ],
                        "right_children": [
                            2,
                            4,
                            6,
                            8,
                            10,
                            -1,
                            12,
                            -1,
                            -1,
                            -1,
                            -1,
                            -1,
                            -1
                        ],
                        "split_conditions": [
                            1E0,
                            1.25E1,
                            8E0,
                            8.5E0,
                            2E0,
                            -1.2843937E-1,
                            8.5E0,
                            -9.16567E-2,
                            -2.8993702E-2,
                            1.1204417E-1,
                            5.969221E-2,
                            1.04447976E-1,
                            2.9475754E-2
                        ],
                        "split_indices": [
                            2,
                            1,
                            1,
                            1,
                            3,
                            0,
                            1,
                            0,
                            0,
                            0,
                            0,
                            0,
                            0
                        ],
                        "split_type": [
                            0,
                            0,
                            0,
                            0,
                            0,
                            0,
                            0,
                            0,
                            0,
                            0,
                            0,
                            0,
                            0
                        ],
                        "sum_hessian": [
                            9.706492E2,
                            4.9399866E2,
                            4.7665048E2,
                            4.801651E2,
                            1.3833547E1,
                            5.7168717E0,
                            4.7093362E2,
                            5.0966084E1,
                            4.2919904E2,
                            8.222025E0,
                            5.6115217E0,
                            3.563216E1,
                            4.3530145E2
                        ],
                        "tree_param": {
                            "num_deleted": "0",
                            "num_feature": "4",
                            "num_nodes": "13",
                            "size_leaf_vector": "1"
                        }
                    },
                    {
                        "base_weights": [
                            3.2964628E-4,
                            -2.8682944E-1,
                            3.007595E-1,
                            -3.2185668E-1,
                            9.0447336E-1,
                            3.3728182E-1,
                            -6.324968E-2,
                            -2.6288992E-2,
                            -9.7767614E-2,
                            1.059618E-1,
                            5.541283E-2,
                            -1.1896656E-1,
                            3.5901036E-2
                        ],
                        "categories": [],
                        "categories_nodes": [],
                        "categories_segments": [],
                        "categories_sizes": [],
                        "default_left": [
                            0,
                            0,
                            0,
                            0,
                            0,
                            0,
                            0,
                            0,
                            0,
                            0,
                            0,
                            0,
                            0
                        ],
                        "id": 4,
                        "left_children": [
                            1,
                            3,
                            5,
                            7,
                            9,
                            11,
                            -1,
                            -1,
                            -1,
                            -1,
                            -1,
                            -1,
                            -1
                        ],
                        "loss_changes": [
                            8.364124E1,
                            2.0975986E1,
                            1.6362972E1,
                            1.8393703E1,
                            1.9668484E-1,
                            1.5576881E1,
                            0E0,
                            0E0,
                            0E0,
                            0E0,
                            0E0,
                            0E0,
                            0E0
                        ],
                        "parents": [
                            2147483647,
                            0,
                            0,
                            1,
                            1,
                            2,
                            2,
                            3,
                            3,
                            4,
                            4,
                            5,
                            5
                        ],
                        "right_children": [
                            2,
                            4,
                            6,
                            8,
                            10,
                            12,
                            -1,
                            -1,
                            -1,
                            -1,
                            -1,
                            -1,
                            -1
                        ],
                        "split_conditions": [
                            1E0,
                            1.25E1,
                            1.25E1,
                            1.2E1,
                            2E0,
                            8E0,
                            -6.324968E-2,
                            -2.6288992E-2,
                            -9.7767614E-2,
                            1.059618E-1,
                            5.541283E-2,
                            -1.1896656E-1,
                            3.5901036E-2
                        ],
                        "split_indices": [
                            2,
                            1,
                            1,
                            0,
                            3,
                            1,
                            0,
                            0,
                            0,
                            0,
                            0,
                            0,
                            0
                        ],
                        "split_type": [
                            0,
                            0,
                            0,
                            0,
                            0,
                            0,
                            0,
                            0,
                            0,
                            0,
                            0,
                            0,
                            0
                        ],
                        "sum_hessian": [
                            9.675158E2,
                            4.947068E2,
                            4.7280902E2,
                            4.812856E2,
                            1.3421154E1,
                            4.5561734E2,
                            1.719167E1,
                            4.4286694E2,
                            3.8418686E1,
                            7.8988E0,
                            5.522354E0,
                            5.6383333E0,
                            4.4997903E2
                        ],
                        "tree_param": {
                            "num_deleted": "0",
                            "num_feature": "4",
                            "num_nodes": "13",
                            "size_leaf_vector": "1"
                        }
                    },
                    {
                        "base_weights": [
                            2.907499E-4,
                            -2.577726E-1,
                            2.728521E-1,
                            -2.8938133E-1,
                            8.514402E-1,
                            3.062667E-1,
                            -5.7118494E-2,
                            -8.0119096E-2,
                            -2.271997E-2,
                            1.00494064E-1,
                            5.1464807E-2,
                            -1.1082318E-1,
                            3.2623492E-2
                        ],
                        "categories": [],
                        "categories_nodes": [],
                        "categories_segments": [],
                        "categories_sizes": [],
                        "default_left": [
                            0,
                            0,
                            0,
                            0,
                            0,
                            0,
                            0,
                            0,
                            0,
                            0,
                            0,
                            0,
                            0
                        ],
                        "id": 5,
                        "left_children": [
                            1,
                            3,
                            5,
                            7,
                            9,
                            11,
                            -1,
                            -1,
                            -1,
                            -1,
                            -1,
                            -1,
                            -1
                        ],
                        "loss_changes": [
                            6.793903E1,
                            1.7641533E1,
                            1.3423389E1,
                            1.5194027E1,
                            2.0659065E-1,
                            1.3142757E1,
                            0E0,
                            0E0,
                            0E0,
                            0E0,
                            0E0,
                            0E0,
                            0E0
                        ],
                        "parents": [
                            2147483647,
                            0,
                            0,
                            1,
                            1,
                            2,
                            2,
                            3,
                            3,
                            4,
                            4,
                            5,
                            5
                        ],
                        "right_children": [
                            2,
                            4,
                            6,
                            8,
                            10,
                            12,
                            -1,
                            -1,
                            -1,
                            -1,
                            -1,
                            -1,
                            -1
                        ],
                        "split_conditions": [
                            1E0,
                            1.25E1,
                            1.25E1,
                            8.5E0,
                            2E0,
                            8E0,
                            -5.7118494E-2,
                            -8.0119096E-2,
                            -2.271997E-2,
                            1.00494064E-1,
                            5.1464807E-2,
                            -1.1082318E-1,
                            3.2623492E-2
                        ],
                        "split_indices": [
                            2,
                            1,
                            1,
                            1,
                            3,
                            1,
                            0,
                            0,
                            0,
                            0,
                            0,
                            0,
                            0
                        ],
                        "split_type": [
                            0,
                            0,
                            0,
                            0,
                            0,
                            0,
                            0,
                            0,
                            0,
                            0,
                            0,
                            0,
                            0
                        ],
                        "sum_hessian": [
                            9.638925E2,
                            4.9514212E2,
                            4.6875043E2,
                            4.8214185E2,
                            1.30002575E1,
                            4.515126E2,
                            1.7237808E1,
                            5.09439E1,
                            4.3119797E2,
                            7.567391E0,
                            5.432866E0,
                            5.526536E0,
                            4.4598608E2
                        ],
                        "tree_param": {
                            "num_deleted": "0",
                            "num_feature": "4",
                            "num_nodes": "13",
                            "size_leaf_vector": "1"
                        }
                    },
                    {
                        "base_weights": [
                            2.4915696E-4,
                            -2.3188409E-1,
                            2.4747802E-1,
                            -2.6045868E-1,
                            8.026134E-1,
                            2.7802333E-1,
                            -5.1682837E-2,
                            -2.0680502E-2,
                            -8.584613E-2,
                            9.551502E-2,
                            4.7810983E-2,
                            -1.03698514E-1,
                            2.9636124E-2
                        ],
                        "categories": [],
                        "categories_nodes": [],
                        "categories_segments": [],
                        "categories_sizes": [],
                        "default_left": [
                            0,
                            0,
                            0,
                            0,
                            0,
                            0,
                            0,
                            0,
                            0,
                            0,
                            0,
                            0,
                            0
                        ],
                        "id": 6,
                        "left_children": [
                            1,
                            3,
                            5,
                            7,
                            9,
                            11,
                            -1,
                            -1,
                            -1,
                            -1,
                            -1,
                            -1,
                            -1
                        ],
                        "loss_changes": [
                            5.5202866E1,
                            1.4873648E1,
                            1.1018215E1,
                            1.533593E1,
                            2.1550274E-1,
                            1.1123856E1,
                            0E0,
                            0E0,
                            0E0,
                            0E0,
                            0E0,
                            0E0,
                            0E0
                        ],
                        "parents": [
                            2147483647,
                            0,
                            0,
                            1,
                            1,
                            2,
                            2,
                            3,
                            3,
                            4,
                            4,
                            5,
                            5
                        ],
                        "right_children": [
                            2,
                            4,
                            6,
                            8,
                            10,
                            12,
                            -1,
                            -1,
                            -1,
                            -1,
                            -1,
                            -1,
                            -1
                        ],
                        "split_conditions": [
                            1E0,
                            1.25E1,
                            1.25E1,
                            1.2E1,
                            2E0,
                            8E0,
                            -5.1682837E-2,
                            -2.0680502E-2,
                            -8.584613E-2,
                            9.551502E-2,
                            4.7810983E-2,
                            -1.03698514E-1,
                            2.9636124E-2
                        ],
                        "split_indices": [
                            2,
                            1,
                            1,
                            0,
                            3,
                            1,
                            0,
                            0,
                            0,
                            0,
                            0,
                            0,
                            0
                        ],
                        "split_type": [
                            0,
                            0,
                            0,
                            0,
                            0,
                            0,
                            0,
                            0,
                            0,
                            0,
                            0,
                            0,
                            0
                        ],
                        "sum_hessian": [
                            9.5988934E2,
                            4.9509067E2,
                            4.647987E2,
                            4.825111E2,
                            1.2579548E1,
                            4.475488E2,
                            1.7249935E1,
                            4.4401892E2,
                            3.849218E1,
                            7.2351556E0,
                            5.3443923E0,
                            5.391294E0,
                            4.421575E2
                        ],
                        "tree_param": {
                            "num_deleted": "0",
                            "num_feature": "4",
                            "num_nodes": "13",
                            "size_leaf_vector": "1"
                        }
                    },
                    {
                        "base_weights": [
                            1.9843403E-4,
                            -2.0865366E-1,
                            2.2438945E-1,
                            -7.0664126E-1,
                            -1.5042697E-1,
                            2.522888E-1,
                            -4.683316E-2,
                            -6.2370725E-2,
                            -1.14962064E-1,
                            1.7443971E-1,
                            -2.3066195E-2,
                            -9.737035E-2,
                            2.691215E-2
                        ],
                        "categories": [],
                        "categories_nodes": [],
                        "categories_segments": [],
                        "categories_sizes": [],
                        "default_left": [
                            0,
                            0,
                            0,
                            0,
                            0,
                            0,
                            0,
                            0,
                            0,
                            0,
                            0,
                            0,
                            0
                        ],
                        "id": 7,
                        "left_children": [
                            1,
                            3,
                            5,
                            7,
                            9,
                            11,
                            -1,
                            -1,
                            -1,
                            -1,
                            -1,
                            -1,
                            -1
                        ],
                        "loss_changes": [
                            4.4852795E1,
                            1.4273758E1,
                            9.046932E0,
                            1.1803246E0,
                            6.809942E1,
                            9.440475E0,
                            0E0,
                            0E0,
                            0E0,
                            0E0,
                            0E0,
                            0E0,
                            0E0
                        ],
                        "parents": [
                            2147483647,
                            0,
                            0,
                            1,
                            1,
                            2,
                            2,
                            3,
                            3,
                            4,
                            4,
                            5,
                            5
                        ],
                        "right_children": [
                            2,
                            4,
                            6,
                            8,
                            10,
                            12,
                            -1,
                            -1,
                            -1,
                            -1,
                            -1,
                            -1,
                            -1
                        ],
                        "split_conditions": [
                            1E0,
                            8.5E0,
                            1.25E1,
                            8.5E0,
                            8.5E0,
                            8E0,
                            -4.683316E-2,
                            -6.2370725E-2,
                            -1.14962064E-1,
                            1.7443971E-1,
                            -2.3066195E-2,
                            -9.737035E-2,
                            2.691215E-2
                        ],
                        "split_indices": [
                            2,
                            1,
                            1,
                            0,
                            0,
                            1,
                            0,
                            0,
                            0,
                            0,
                            0,
                            0,
                            0
                        ],
                        "split_type": [
                            0,
                            0,
                            0,
                            0,
                            0,
                            0,
                            0,
                            0,
                            0,
                            0,
                            0,
                            0,
                            0
                        ],
                        "sum_hessian": [
                            9.559272E2,
                            4.9492957E2,
                            4.6099765E2,
                            5.0645397E1,
                            4.4428415E2,
                            4.43761E2,
                            1.7236666E1,
                            4.4687115E1,
                            5.958282E0,
                            1.720605E1,
                            4.270781E2,
                            5.240343E0,
                            4.3852066E2
                        ],
                        "tree_param": {
                            "num_deleted": "0",
                            "num_feature": "4",
                            "num_nodes": "13",
                            "size_leaf_vector": "1"
                        }
                    },
                    {
                        "base_weights": [
                            8.311792E-5,
                            -1.8787864E-1,
                            2.03372E-1,
                            -2.4942157E-1,
                            2.3995028E-1,
                            6.262157E-1,
                            1.6308698E-1,
                            -1.6545184E-2,
                            -9.426785E-2,
                            1.4649129E-1,
                            -2.1770228E-2,
                            -9.16762E-2,
                            8.8041835E-2,
                            -9.525916E-2,
                            2.017471E-2
                        ],
                        "categories": [],
                        "categories_nodes": [],
                        "categories_segments": [],
                        "categories_sizes": [],
                        "default_left": [
                            0,
                            0,
                            0,
                            0,
                            0,
                            0,
                            0,
                            0,
                            0,
                            0,
                            0,
                            0,
                            0,
                            0,
                            0
                        ],
                        "id": 8,
                        "left_children": [
                            1,
                            3,
                            5,
                            7,
                            9,
                            11,
                            13,
                            -1,
                            -1,
                            -1,
                            -1,
                            -1,
                            -1,
                            -1,
                            -1
                        ],
                        "loss_changes": [
                            3.6457863E1,
                            1.3112995E1,
                            7.7059803E0,
                            2.5102442E1,
                            3.555606E1,
                            1.630783E1,
                            1.8301567E1,
                            0E0,
                            0E0,
                            0E0,
                            0E0,
                            0E0,
                            0E0,
                            0E0,
                            0E0
                        ],
                        "parents": [
                            2147483647,
                            0,
                            0,
                            1,
                            1,
                            2,
                            2,
                            3,
                            3,
                            4,
                            4,
                            5,
                            5,
                            6,
                            6
                        ],
                        "right_children": [
                            2,
                            4,
                            6,
                            8,
                            10,
                            12,
                            14,
                            -1,
                            -1,
                            -1,
                            -1,
                            -1,
                            -1,
                            -1,
                            -1
                        ],
                        "split_conditions": [
                            1E0,
                            1.2E1,
                            8.5E0,
                            1.15E1,
                            1.2E1,
                            8E0,
                            8.5E0,
                            -1.6545184E-2,
                            -9.426785E-2,
                            1.4649129E-1,
                            -2.1770228E-2,
                            -9.16762E-2,
                            8.8041835E-2,
                            -9.525916E-2,
                            2.017471E-2
                        ],
                        "split_indices": [
                            2,
                            1,
                            1,
                            0,
                            0,
                            1,
                            0,
                            0,
                            0,
                            0,
                            0,
                            0,
                            0,
                            0,
                            0
                        ],
                        "split_type": [
                            0,
                            0,
                            0,
                            0,
                            0,
                            0,
                            0,
                            0,
                            0,
                            0,
                            0,
                            0,
                            0,
                            0,
                            0
                        ],
                        "sum_hessian": [
                            9.521313E2,
                            4.9475476E2,
                            4.573765E2,
                            4.3289944E2,
                            6.185531E1,
                            3.851952E1,
                            4.18857E2,
                            3.8723486E2,
                            4.5664597E1,
                            1.6225327E1,
                            4.5629982E1,
                            5.0797367E0,
                            3.3439785E1,
                            1.3236265E1,
                            4.0562073E2
                        ],
                        "tree_param": {
                            "num_deleted": "0",
                            "num_feature": "4",
                            "num_nodes": "15",
                            "size_leaf_vector": "1"
                        }
                    },
                    {
                        "base_weights": [
                            1.03512495E-4,
                            -1.6902581E-1,
                            1.8429832E-1,
                            -1.9512811E-1,
                            7.850477E-1,
                            2.0999514E-1,
                            -4.4353053E-1,
                            -1.4780285E-2,
                            -7.27269E-2,
                            9.3066536E-2,
                            4.7600027E-2,
                            -8.649518E-2,
                            2.2418952E-2,
                            -3.0349595E-2,
                            -5.03631E-2
                        ],
                        "categories": [],
                        "categories_nodes": [],
                        "categories_segments": [],
                        "categories_sizes": [],
                        "default_left": [
                            0,
                            0,
                            0,
                            0,
                            0,
                            0,
                            0,
                            0,
                            0,
                            0,
                            0,
                            0,
                            0,
                            0,
                            0
                        ],
                        "id": 9,
                        "left_children": [
                            1,
                            3,
                            5,
                            7,
                            9,
                            11,
                            13,
                            -1,
                            -1,
                            -1,
                            -1,
                            -1,
                            -1,
                            -1,
                            -1
                        ],
                        "loss_changes": [
                            2.962617E1,
                            1.2499699E1,
                            7.4373493E0,
                            1.2065609E1,
                            1.6011333E-1,
                            6.8770485E0,
                            4.992485E-4,
                            0E0,
                            0E0,
                            0E0,
                            0E0,
                            0E0,
                            0E0,
                            0E0,
                            0E0
                        ],
                        "parents": [
                            2147483647,
                            0,
                            0,
                            1,
                            1,
                            2,
                            2,
                            3,
                            3,
                            4,
                            4,
                            5,
                            5,
                            6,
                            6
                        ],
                        "right_children": [
                            2,
                            4,
                            6,
                            8,
                            10,
                            12,
                            14,
                            -1,
                            -1,
                            -1,
                            -1,
                            -1,
                            -1,
                            -1,
                            -1
                        ],
                        "split_conditions": [
                            1E0,
                            1.25E1,
                            1.25E1,
                            1.2E1,
                            2E0,
                            8E0,
                            1E0,
                            -1.4780285E-2,
                            -7.27269E-2,
                            9.3066536E-2,
                            4.7600027E-2,
                            -8.649518E-2,
                            2.2418952E-2,
                            -3.0349595E-2,
                            -5.03631E-2
                        ],
                        "split_indices": [
                            2,
                            1,
                            1,
                            0,
                            3,
                            1,
                            3,
                            0,
                            0,
                            0,
                            0,
                            0,
                            0,
                            0,
                            0
                        ],
                        "split_type": [
                            0,
                            0,
                            0,
                            0,
                            0,
                            0,
                            0,
                            0,
                            0,
                            0,
                            0,
                            0,
                            0,
                            0,
                            0
                        ],
                        "sum_hessian": [
                            9.489972E2,
                            4.947738E2,
                            4.5422336E2,
                            4.8237216E2,
                            1.2401645E1,
                            4.3700253E2,
                            1.7220839E1,
                            4.4415002E2,
                            3.8222153E1,
                            7.062515E0,
                            5.33913E0,
                            4.91417E0,
                            4.3208835E2,
                            6.9881663E0,
                            1.0232673E1
                        ],
                        "tree_param": {
                            "num_deleted": "0",
                            "num_feature": "4",
                            "num_nodes": "15",
                            "size_leaf_vector": "1"
                        }
                    },
                    {
                        "base_weights": [
                            3.224471E-5,
                            -1.5218727E-1,
                            1.6678722E-1,
                            -2.4054009E-1,
                            1.2916197E-1,
                            5.8035886E-1,
                            1.2861758E-1,
                            -1.2944438E-2,
                            -1.16780534E-1,
                            1.7779511E-1,
                            -1.394437E-2,
                            7.918905E-2,
                            -1.4098458E-1,
                            -8.6763225E-2,
                            1.6428724E-2
                        ],
                        "categories": [],
                        "categories_nodes": [],
                        "categories_segments": [],
                        "categories_sizes": [],
                        "default_left": [
                            0,
                            0,
                            0,
                            0,
                            0,
                            0,
                            0,
                            0,
                            0,
                            0,
                            0,
                            0,
                            0,
                            0,
                            0
                        ],
                        "id": 10,
                        "left_children": [
                            1,
                            3,
                            5,
                            7,
                            9,
                            11,
                            13,
                            -1,
                            -1,
                            -1,
                            -1,
                            -1,
                            -1,
                            -1,
                            -1
                        ],
                        "loss_changes": [
                            2.4042234E1,
                            1.2339841E1,
                            7.0605984E0,
                            3.870377E1,
                            5.294405E1,
                            1.707492E1,
                            1.4893294E1,
                            0E0,
                            0E0,
                            0E0,
                            0E0,
                            0E0,
                            0E0,
                            0E0,
                            0E0
                        ],
                        "parents": [
                            2147483647,
                            0,
                            0,
                            1,
                            1,
                            2,
                            2,
                            3,
                            3,
                            4,
                            4,
                            5,
                            5,
                            6,
                            6
                        ],
                        "right_children": [
                            2,
                            4,
                            6,
                            8,
                            10,
                            12,
                            14,
                            -1,
                            -1,
                            -1,
                            -1,
                            -1,
                            -1,
                            -1,
                            -1
                        ],
                        "split_conditions": [
                            1E0,
                            1.15E1,
                            8.5E0,
                            1.1E1,
                            1.15E1,
                            8.5E0,
                            8.5E0,
                            -1.2944438E-2,
                            -1.16780534E-1,
                            1.7779511E-1,
                            -1.394437E-2,
                            7.918905E-2,
                            -1.4098458E-1,
                            -8.6763225E-2,
                            1.6428724E-2
                        ],
                        "split_indices": [
                            2,
                            1,
                            1,
                            0,
                            0,
                            0,
                            0,
                            0,
                            0,
                            0,
                            0,
                            0,
                            0,
                            0,
                            0
                        ],
                        "split_type": [
                            0,
                            0,
                            0,
                            0,
                            0,
                            0,
                            0,
                            0,
                            0,
                            0,
                            0,
                            0,
                            0,
                            0,
                            0
                        ],
                        "sum_hessian": [
                            9.4516504E2,
                            4.9416345E2,
                            4.5100156E2,
                            3.7617676E2,
                            1.1798669E2,
                            3.6906918E1,
                            4.1409464E2,
                            3.3694675E2,
                            3.923002E1,
                            1.5741436E1,
                            1.02245255E2,
                            3.390535E1,
                            3.0015695E0,
                            1.3507497E1,
                            4.0058713E2
                        ],
                        "tree_param": {
                            "num_deleted": "0",
                            "num_feature": "4",
                            "num_nodes": "15",
                            "size_leaf_vector": "1"
                        }
                    },
                    {
                        "base_weights": [
                            1.2219618E-5,
                            -1.3692957E-1,
                            1.5073207E-1,
                            -6.0408366E-1,
                            -8.306607E-2,
                            1.7438403E-1,
                            -4.1964706E-2,
                            -5.25947E-2,
                            -1.03154555E-1,
                            1.6385613E-1,
                            -1.553757E-2,
                            1.3853907E-2,
                            6.19823E-2
                        ],
                        "categories": [],
                        "categories_nodes": [],
                        "categories_segments": [],
                        "categories_sizes": [],
                        "default_left": [
                            0,
                            0,
                            0,
                            0,
                            0,
                            0,
                            0,
                            0,
                            0,
                            0,
                            0,
                            0,
                            0
                        ],
                        "id": 11,
                        "left_children": [
                            1,
                            3,
                            5,
                            7,
                            9,
                            11,
                            -1,
                            -1,
                            -1,
                            -1,
                            -1,
                            -1,
                            -1
                        ],
                        "loss_changes": [
                            1.9497856E1,
                            1.2404247E1,
                            6.1400547E0,
                            1.1612225E0,
                            5.564635E1,
                            6.8199472E0,
                            0E0,
                            0E0,
                            0E0,
                            0E0,
                            0E0,
                            0E0,
                            0E0
                        ],
                        "parents": [
                            2147483647,
                            0,
                            0,
                            1,
                            1,
                            2,
                            2,
                            3,
                            3,
                            4,
                            4,
                            5,
                            5
                        ],
                        "right_children": [
                            2,
                            4,
                            6,
                            8,
                            10,
                            12,
                            -1,
                            -1,
                            -1,
                            -1,
                            -1,
                            -1,
                            -1
                        ],
                        "split_conditions": [
                            1E0,
                            8.5E0,
                            1.25E1,
                            8.5E0,
                            8.5E0,
                            1.2E1,
                            -4.1964706E-2,
                            -5.25947E-2,
                            -1.03154555E-1,
                            1.6385613E-1,
                            -1.553757E-2,
                            1.3853907E-2,
                            6.19823E-2
                        ],
                        "split_indices": [
                            2,
                            1,
                            1,
                            0,
                            0,
                            0,
                            0,
                            0,
                            0,
                            0,
                            0,
                            0,
                            0
                        ],
                        "split_type": [
                            0,
                            0,
                            0,
                            0,
                            0,
                            0,
                            0,
                            0,
                            0,
                            0,
                            0,
                            0,
                            0
                        ],
                        "sum_hessian": [
                            9.4267053E2,
                            4.9395865E2,
                            4.487119E2,
                            5.001007E1,
                            4.4394858E2,
                            4.315126E2,
                            1.71993E1,
                            4.416707E1,
                            5.843E0,
                            1.7021505E1,
                            4.2692706E2,
                            4.005879E2,
                            3.0924732E1
                        ],
                        "tree_param": {
                            "num_deleted": "0",
                            "num_feature": "4",
                            "num_nodes": "13",
                            "size_leaf_vector": "1"
                        }
                    },
                    {
                        "base_weights": [
                            9.154493E-5,
                            -1.2341761E-1,
                            1.3654664E-1,
                            -1.8075284E-1,
                            2.776344E-1,
                            -8.686018E-2,
                            1.4970492E-1,
                            -1.0670806E-2,
                            -7.930735E-2,
                            1.3774125E-1,
                            -1.36931315E-2,
                            7.575831E-2,
                            1.0167053E-2
                        ],
                        "categories": [],
                        "categories_nodes": [],
                        "categories_segments": [],
                        "categories_sizes": [],
                        "default_left": [
                            0,
                            0,
                            0,
                            0,
                            0,
                            0,
                            0,
                            0,
                            0,
                            0,
                            0,
                            0,
                            0
                        ],
                        "id": 12,
                        "left_children": [
                            1,
                            3,
                            5,
                            7,
                            9,
                            -1,
                            11,
                            -1,
                            -1,
                            -1,
                            -1,
                            -1,
                            -1
                        ],
                        "loss_changes": [
                            1.5865931E1,
                            1.1412724E1,
                            6.0455313E0,
                            1.9544579E1,
                            2.854837E1,
                            0E0,
                            1.2838757E1,
                            0E0,
                            0E0,
                            0E0,
                            0E0,
                            0E0,
                            0E0
                        ],
                        "parents": [
                            2147483647,
                            0,
                            0,
                            1,
                            1,
                            2,
                            2,
                            3,
                            3,
                            4,
                            4,
                            6,
                            6
                        ],
                        "right_children": [
                            2,
                            4,
                            6,
                            8,
                            10,
                            -1,
                            12,
                            -1,
                            -1,
                            -1,
                            -1,
                            -1,
                            -1
                        ],
                        "split_conditions": [
                            1E0,
                            1.2E1,
                            8E0,
                            1.15E1,
                            1.2E1,
                            -8.686018E-2,
                            8.5E0,
                            -1.0670806E-2,
                            -7.930735E-2,
                            1.3774125E-1,
                            -1.36931315E-2,
                            7.575831E-2,
                            1.0167053E-2
                        ],
                        "split_indices": [
                            2,
                            1,
                            1,
                            0,
                            0,
                            0,
                            1,
                            0,
                            0,
                            0,
                            0,
                            0,
                            0
                        ],
                        "split_type": [
                            0,
                            0,
                            0,
                            0,
                            0,
                            0,
                            0,
                            0,
                            0,
                            0,
                            0,
                            0,
                            0
                        ],
                        "sum_hessian": [
                            9.394054E2,
                            4.9314355E2,
                            4.4626187E2,
                            4.319416E2,
                            6.120197E1,
                            4.9264083E0,
                            4.4133545E2,
                            3.863915E2,
                            4.555007E1,
                            1.6118792E1,
                            4.508318E1,
                            3.1238512E1,
                            4.1009695E2
                        ],
                        "tree_param": {
                            "num_deleted": "0",
                            "num_feature": "4",
                            "num_nodes": "13",
                            "size_leaf_vector": "1"
                        }
                    },
                    {
                        "base_weights": [
                            1.6543928E-4,
                            -1.1111376E-1,
                            1.23648316E-1,
                            -2.1712469E-1,
                            9.793668E-2,
                            -8.207267E-2,
                            1.3572744E-1,
                            -7.1481033E-3,
                            -1.049732E-1,
                            1.7576768E-1,
                            -8.984975E-3,
                            7.0690624E-2,
                            9.183407E-3
                        ],
                        "categories": [],
                        "categories_nodes": [],
                        "categories_segments": [],
                        "categories_sizes": [],
                        "default_left": [
                            0,
                            0,
                            0,
                            0,
                            0,
                            0,
                            0,
                            0,
                            0,
                            0,
                            0,
                            0,
                            0
                        ],
                        "id": 13,
                        "left_children": [
                            1,
                            3,
                            5,
                            7,
                            9,
                            -1,
                            11,
                            -1,
                            -1,
                            -1,
                            -1,
                            -1,
                            -1
                        ],
                        "loss_changes": [
                            1.2894748E1,
                            1.0960156E1,
                            5.185477E0,
                            3.9678093E1,
                            5.213714E1,
                            0E0,
                            1.0967649E1,
                            0E0,
                            0E0,
                            0E0,
                            0E0,
                            0E0,
                            0E0
                        ],
                        "parents": [
                            2147483647,
                            0,
                            0,
                            1,
                            1,
                            2,
                            2,
                            3,
                            3,
                            4,
                            4,
                            6,
                            6
                        ],
                        "right_children": [
                            2,
                            4,
                            6,
                            8,
                            10,
                            -1,
                            12,
                            -1,
                            -1,
                            -1,
                            -1,
                            -1,
                            -1
                        ],
                        "split_conditions": [
                            1E0,
                            1.1E1,
                            8E0,
                            1.05E1,
                            1.1E1,
                            -8.207267E-2,
                            8.5E0,
                            -7.1481033E-3,
                            -1.049732E-1,
                            1.7576768E-1,
                            -8.984975E-3,
                            7.0690624E-2,
                            9.183407E-3
                        ],
                        "split_indices": [
                            2,
                            1,
                            1,
                            0,
                            0,
                            0,
                            1,
                            0,
                            0,
                            0,
                            0,
                            0,
                            0
                        ],
                        "split_type": [
                            0,
                            0,
                            0,
                            0,
                            0,
                            0,
                            0,
                            0,
                            0,
                            0,
                            0,
                            0,
                            0
                        ],
                        "sum_hessian": [
                            9.3640906E2,
                            4.9259598E2,
                            4.4381308E2,
                            3.268231E2,
                            1.6577289E2,
                            4.759482E0,
                            4.3905362E2,
                            2.790893E2,
                            4.7733784E1,
                            1.5999775E1,
                            1.497731E2,
                            3.0254225E1,
                            4.0879938E2
                        ],
                        "tree_param": {
                            "num_deleted": "0",
                            "num_feature": "4",
                            "num_nodes": "13",
                            "size_leaf_vector": "1"
                        }
                    },
                    {
                        "base_weights": [
                            2.4239697E-4,
                            -9.9952795E-2,
                            1.1192993E-1,
                            -5.3611094E-1,
                            -5.0200466E-2,
                            1.3349202E-1,
                            -3.987972E-1,
                            -1.0180407E-1,
                            -4.682527E-2,
                            1.5335858E-1,
                            -1.1551744E-2,
                            9.986623E-3,
                            5.5680823E-2,
                            -2.7199833E-2,
                            -4.5347817E-2
                        ],
                        "categories": [],
                        "categories_nodes": [],
                        "categories_segments": [],
                        "categories_sizes": [],
                        "default_left": [
                            0,
                            0,
                            0,
                            0,
                            0,
                            0,
                            0,
                            0,
                            0,
                            0,
                            0,
                            0,
                            0,
                            0,
                            0
                        ],
                        "id": 14,
                        "left_children": [
                            1,
                            3,
                            5,
                            7,
                            9,
                            11,
                            13,
                            -1,
                            -1,
                            -1,
                            -1,
                            -1,
                            -1,
                            -1,
                            -1
                        ],
                        "loss_changes": [
                            1.0471901E1,
                            1.0676977E1,
                            4.92632E0,
                            1.1716099E0,
                            4.609436E1,
                            5.9987597E0,
                            2.6783943E-3,
                            0E0,
                            0E0,
                            0E0,
                            0E0,
                            0E0,
                            0E0,
                            0E0,
                            0E0
                        ],
                        "parents": [
                            2147483647,
                            0,
                            0,
                            1,
                            1,
                            2,
                            2,
                            3,
                            3,
                            4,
                            4,
                            5,
                            5,
                            6,
                            6
                        ],
                        "right_children": [
                            2,
                            4,
                            6,
                            8,
                            10,
                            12,
                            14,
                            -1,
                            -1,
                            -1,
                            -1,
                            -1,
                            -1,
                            -1,
                            -1
                        ],
                        "split_conditions": [
                            1E0,
                            8.5E0,
                            1.25E1,
                            8E0,
                            8.5E0,
                            1.2E1,
                            1E0,
                            -1.0180407E-1,
                            -4.682527E-2,
                            1.5335858E-1,
                            -1.1551744E-2,
                            9.986623E-3,
                            5.5680823E-2,
                            -2.7199833E-2,
                            -4.5347817E-2
                        ],
                        "split_indices": [
                            2,
                            1,
                            1,
                            1,
                            0,
                            0,
                            3,
                            0,
                            0,
                            0,
                            0,
                            0,
                            0,
                            0,
                            0
                        ],
                        "split_type": [
                            0,
                            0,
                            0,
                            0,
                            0,
                            0,
                            0,
                            0,
                            0,
                            0,
                            0,
                            0,
                            0,
                            0,
                            0
                        ],
                        "sum_hessian": [
                            9.337807E2,
                            4.922695E2,
                            4.4151123E2,
                            4.94025E1,
                            4.4286697E2,
                            4.243351E2,
                            1.7176125E1,
                            4.3692966E0,
                            4.5033203E1,
                            1.6650541E1,
                            4.2621643E2,
                            3.9425378E2,
                            3.0081326E1,
                            6.9753537E0,
                            1.0200771E1
                        ],
                        "tree_param": {
                            "num_deleted": "0",
                            "num_feature": "4",
                            "num_nodes": "15",
                            "size_leaf_vector": "1"
                        }
                    },
                    {
                        "base_weights": [
                            2.5766745E-4,
                            -9.511931E-2,
                            1.04621835E-2,
                            -8.06043E-2,
                            1.1236601E-1,
                            -1.0456494E-2,
                            7.803712E-2,
                            6.5294325E-2,
                            7.199856E-3
                        ],
                        "categories": [],
                        "categories_nodes": [],
                        "categories_segments": [],
                        "categories_sizes": [],
                        "default_left": [
                            0,
                            0,
                            0,
                            0,
                            0,
                            0,
                            0,
                            0,
                            0
                        ],
                        "id": 15,
                        "left_children": [
                            1,
                            -1,
                            3,
                            5,
                            7,
                            -1,
                            -1,
                            -1,
                            -1
                        ],
                        "loss_changes": [
                            9.05607E0,
                            0E0,
                            8.572832E0,
                            1.0146833E1,
                            9.46538E0,
                            0E0,
                            0E0,
                            0E0,
                            0E0
                        ],
                        "parents": [
                            2147483647,
                            0,
                            0,
                            2,
                            2,
                            3,
                            3,
                            4,
                            4
                        ],
                        "right_children": [
                            2,
                            -1,
                            4,
                            6,
                            8,
                            -1,
                            -1,
                            -1,
                            -1
                        ],
                        "split_conditions": [
                            8E0,
                            -9.511931E-2,
                            1E0,
                            1.25E1,
                            8.5E0,
                            -1.0456494E-2,
                            7.803712E-2,
                            6.5294325E-2,
                            7.199856E-3
                        ],
                        "split_indices": [
                            1,
                            0,
                            2,
                            1,
                            1,
                            0,
                            0,
                            0,
                            0
                        ],
                        "split_type": [
                            0,
                            0,
                            0,
                            0,
                            0,
                            0,
                            0,
                            0,
                            0
                        ],
                        "sum_hessian": [
                            9.3071594E2,
                            8.897697E0,
                            9.2181824E2,
                            4.8690448E2,
                            4.349138E2,
                            4.7457574E2,
                            1.2328718E1,
                            2.9165918E1,
                            4.0574786E2
                        ],
                        "tree_param": {
                            "num_deleted": "0",
                            "num_feature": "4",
                            "num_nodes": "9",
                            "size_leaf_vector": "1"
                        }
                    },
                    {
                        "base_weights": [
                            3.176719E-4,
                            -8.938498E-2,
                            9.645183E-3,
                            -7.246043E-2,
                            1.0180335E-1,
                            -1.4997366E-2,
                            1.7155135E-2,
                            6.0905196E-2,
                            6.4976015E-3
                        ],
                        "categories": [],
                        "categories_nodes": [],
                        "categories_segments": [],
                        "categories_sizes": [],
                        "default_left": [
                            0,
                            0,
                            0,
                            0,
                            0,
                            0,
                            0,
                            0,
                            0
                        ],
                        "id": 16,
                        "left_children": [
                            1,
                            -1,
                            3,
                            5,
                            7,
                            -1,
                            -1,
                            -1,
                            -1
                        ],
                        "loss_changes": [
                            7.756717E0,
                            0E0,
                            6.9716735E0,
                            9.243051E0,
                            8.068985E0,
                            0E0,
                            0E0,
